{
  "position_0": {
    "layer_2": {
      "baseline": 0.60714285715,
      "weights": [
        0.23658939917104727,
        0.2606433108175237,
        -0.4822138321158096,
        -0.0721880762246772,
        -0.032083589433189785
      ],
      "fourier": {
        "amplitude": 0.0,
        "period": 8.0,
        "phase": 0.0
      }
    },
    "layer_3": {
      "baseline": 0.6071428571214286,
      "weights": [
        -0.04498338059762657,
        -0.7132668557238432,
        -1.1059569142168213,
        2.191812865389478,
        -0.48812523069068253
      ],
      "fourier": {
        "amplitude": 0.026555888967252306,
        "period": 3.5,
        "phase": -2.918462052790652
      }
    },
    "layer_4": {
      "baseline": 0.6071428571380952,
      "weights": [
        -0.10036882007117943,
        -0.7436511298183899,
        -1.086340693656072,
        2.521517904785976,
        -0.7328727026142157
      ],
      "fourier": {
        "amplitude": 0.022741836365816108,
        "period": 6.0,
        "phase": 2.0540025303232907
      }
    },
    "layer_5": {
      "baseline": 0.6071428571442856,
      "weights": [
        0.05758876276301242,
        -0.1583589463636684,
        -0.662328860114727,
        1.0846450192818968,
        -0.3583513847945047
      ],
      "fourier": {
        "amplitude": 0.06279787083167805,
        "period": 104.99999999999999,
        "phase": -1.677240680924529
      }
    },
    "layer_6": {
      "baseline": 0.5599999999974,
      "weights": [
        -0.015600247877426775,
        -0.43203342451099236,
        -0.7112756417209768,
        1.99957680410836,
        -0.6798276315267122
      ],
      "fourier": {
        "amplitude": 0.08039636143454008,
        "period": 500.0,
        "phase": 0.6577252886106416
      }
    },
    "layer_7": {
      "baseline": 0.6588235294117647,
      "weights": [
        0.09066795179031373,
        0.052992522955468926,
        -0.5037750074218008,
        0.6985395209690647,
        -0.2663829756116705
      ],
      "fourier": {
        "amplitude": 0.11378674966528267,
        "period": 170.0,
        "phase": 0.393562291349882
      }
    },
    "layer_8": {
      "baseline": 0.3696969696969697,
      "weights": [
        0.029110316239767304,
        -0.3832271896603046,
        -0.5911566701350938,
        2.296650890754288,
        -0.7641333576181379
      ],
      "fourier": {
        "amplitude": 0.17963862402955133,
        "period": 6.875,
        "phase": -1.4526620807612067
      }
    },
    "layer_9": {
      "baseline": 0.7857142857142857,
      "weights": [
        0.09560227613057816,
        0.19396466007786764,
        -0.2682575621443545,
        -0.02015693321353701,
        -0.04031386642707405
      ],
      "fourier": {
        "amplitude": 0.1965624513101792,
        "period": 42.0,
        "phase": 1.0797784563317774
      }
    }
  },
  "position_1": {
    "layer_2": {
      "baseline": 0.535714285725,
      "weights": [
        0.27260855990328003,
        0.23329138241311886,
        -0.3571848078535478,
        -0.02477390465093747,
        -0.011010624289305437
      ],
      "fourier": {
        "amplitude": 0.0,
        "period": 8.0,
        "phase": 0.0
      }
    },
    "layer_3": {
      "baseline": 0.5357142856928572,
      "weights": [
        0.03765402127617432,
        -0.43964032516914836,
        -0.903059128593764,
        1.6779487178092276,
        -0.3555429195850286
      ],
      "fourier": {
        "amplitude": 0.0183290948460478,
        "period": 3.5,
        "phase": -2.9517377853436915
      }
    },
    "layer_4": {
      "baseline": 0.5357142857095238,
      "weights": [
        -0.03263796581125033,
        -0.6347481640020738,
        -0.9382135883168059,
        2.2747847630066516,
        -0.6246404913665946
      ],
      "fourier": {
        "amplitude": 0.025346507091946073,
        "period": 168.0,
        "phase": 1.2403234574118809
      }
    },
    "layer_5": {
      "baseline": 0.5357142857164285,
      "weights": [
        0.06177635839140133,
        -0.33191225474919406,
        -0.6606323365325284,
        1.4732154110679472,
        -0.4342668896372707
      ],
      "fourier": {
        "amplitude": 0.050946006640868735,
        "period": 41.99999999999999,
        "phase": 0.9359692310382003
      }
    },
    "layer_6": {
      "baseline": 0.4999999999955769,
      "weights": [
        0.04090483784282888,
        -0.29019645642412323,
        -0.5512898622672107,
        1.5487863462458313,
        -0.49259858324777317
      ],
      "fourier": {
        "amplitude": 0.06901265650494623,
        "period": 173.33333333333331,
        "phase": 0.0431933262005465
      }
    },
    "layer_7": {
      "baseline": 0.592,
      "weights": [
        0.10806527825126246,
        -0.2058984775471047,
        -0.48229496300274866,
        1.271906055707044,
        -0.4113990975030408
      ],
      "fourier": {
        "amplitude": 0.10297260800879529,
        "period": 166.66666666666666,
        "phase": -1.295110809693028
      }
    },
    "layer_8": {
      "baseline": 0.3473684210526316,
      "weights": [
        -0.03852591911057457,
        -0.44231044080661125,
        -0.5827036156323945,
        2.5829633171664357,
        -0.817497707627975
      ],
      "fourier": {
        "amplitude": 0.16988492835750113,
        "period": 7.6000000000000005,
        "phase": -2.081634775835724
      }
    },
    "layer_9": {
      "baseline": 0.7692307692307693,
      "weights": [
        0.10215508031346947,
        -0.07030454129957353,
        0.015217755584971085,
        -0.011819206254494015,
        -0.023638412508988044
      ],
      "fourier": {
        "amplitude": 0.2402087485881433,
        "period": 2.6,
        "phase": 1.345338789397149
      }
    }
  },
  "position_2": {
    "layer_2": {
      "baseline": 0.60714285715,
      "weights": [
        0.23658939917104727,
        0.2606433108175237,
        -0.4822138321158096,
        -0.0721880762246772,
        -0.032083589433189785
      ],
      "fourier": {
        "amplitude": 0.0,
        "period": 8.0,
        "phase": 0.0
      }
    },
    "layer_3": {
      "baseline": 0.6071428571214286,
      "weights": [
        -0.04498338059762657,
        -0.7132668557238432,
        -1.1059569142168213,
        2.191812865389478,
        -0.48812523069068253
      ],
      "fourier": {
        "amplitude": 0.027293709531523734,
        "period": 3.5,
        "phase": -2.8203601983969984
      }
    },
    "layer_4": {
      "baseline": 0.6071428571380952,
      "weights": [
        -0.10036882007117862,
        -0.7436511298183898,
        -1.0863406936560738,
        2.5215179047859766,
        -0.732872702614216
      ],
      "fourier": {
        "amplitude": 0.024704003535664345,
        "period": 5.25,
        "phase": 2.8098139182244912
      }
    },
    "layer_5": {
      "baseline": 0.6071428571442856,
      "weights": [
        0.0575887627630183,
        -0.15835894636367492,
        -0.6623288601147224,
        1.0846450192818908,
        -0.35835138479450385
      ],
      "fourier": {
        "amplitude": 0.07156432654320372,
        "period": 104.99999999999999,
        "phase": -3.135847878300972
      }
    },
    "layer_6": {
      "baseline": 0.5599999999974,
      "weights": [
        -0.015600247877424707,
        -0.4320334245110005,
        -0.7112756417209708,
        1.999576804108352,
        -0.6798276315267046
      ],
      "fourier": {
        "amplitude": 0.06814541142037565,
        "period": 250.0,
        "phase": 1.635815315064906
      }
    },
    "layer_7": {
      "baseline": 0.6588235294117647,
      "weights": [
        0.09066795179031198,
        0.05299252295546993,
        -0.5037750074218021,
        0.6985395209690642,
        -0.26638297561166907
      ],
      "fourier": {
        "amplitude": 0.10551095718474235,
        "period": 255.0,
        "phase": 1.6820498011194298
      }
    },
    "layer_8": {
      "baseline": 0.3696969696969697,
      "weights": [
        0.02911031623976752,
        -0.38322718966031527,
        -0.5911566701350982,
        2.296650890754323,
        -0.7641333576181507
      ],
      "fourier": {
        "amplitude": 0.1958498298873297,
        "period": 12.692307692307693,
        "phase": -1.8376164108180197
      }
    },
    "layer_9": {
      "baseline": 0.7857142857142857,
      "weights": [
        0.0956022761305782,
        0.19396466007786772,
        -0.2682575621443548,
        -0.020156933213537002,
        -0.04031386642707406
      ],
      "fourier": {
        "amplitude": 0.20968286877358422,
        "period": 10.5,
        "phase": 0.4259392590012549
      }
    }
  },
  "position_3": {
    "layer_2": {
      "baseline": 0.535714285725,
      "weights": [
        0.27260855990328003,
        0.23329138241311886,
        -0.3571848078535478,
        -0.02477390465093747,
        -0.011010624289305437
      ],
      "fourier": {
        "amplitude": 0.0,
        "period": 8.0,
        "phase": 0.0
      }
    },
    "layer_3": {
      "baseline": 0.5357142856928572,
      "weights": [
        0.03765402127617432,
        -0.43964032516914836,
        -0.903059128593764,
        1.6779487178092276,
        -0.3555429195850286
      ],
      "fourier": {
        "amplitude": 0.0183290948460478,
        "period": 3.5,
        "phase": -2.9517377853436915
      }
    },
    "layer_4": {
      "baseline": 0.5357142857095238,
      "weights": [
        -0.0326379658112505,
        -0.6347481640020723,
        -0.9382135883168057,
        2.274784763006648,
        -0.6246404913665935
      ],
      "fourier": {
        "amplitude": 0.02204819989395248,
        "period": 5.419354838709678,
        "phase": 1.9119040549253643
      }
    },
    "layer_5": {
      "baseline": 0.5357142857164285,
      "weights": [
        0.061776358391405224,
        -0.3319122547491979,
        -0.6606323365325328,
        1.4732154110679545,
        -0.43426688963727467
      ],
      "fourier": {
        "amplitude": 0.04866045020575917,
        "period": 52.49999999999999,
        "phase": 0.3610020002422776
      }
    },
    "layer_6": {
      "baseline": 0.4999999999955769,
      "weights": [
        0.04090483784283289,
        -0.29019645642412656,
        -0.551289862267212,
        1.548786346245837,
        -0.49259858324777955
      ],
      "fourier": {
        "amplitude": 0.07504938684918129,
        "period": 173.33333333333331,
        "phase": 0.13369650520155885
      }
    },
    "layer_7": {
      "baseline": 0.592,
      "weights": [
        0.10806527825126319,
        -0.20589847754710183,
        -0.48229496300275104,
        1.2719060557070414,
        -0.4113990975030396
      ],
      "fourier": {
        "amplitude": 0.09022080359166532,
        "period": 62.5,
        "phase": 0.8385495384997421
      }
    },
    "layer_8": {
      "baseline": 0.3473684210526316,
      "weights": [
        -0.03852591911057596,
        -0.4423104408066228,
        -0.5827036156324029,
        2.5829633171664574,
        -0.8174977076279751
      ],
      "fourier": {
        "amplitude": 0.13084099538531996,
        "period": 190.0,
        "phase": -1.043205247170339
      }
    },
    "layer_9": {
      "baseline": 0.7692307692307693,
      "weights": [
        0.1021550803134695,
        -0.07030454129957359,
        0.015217755584971134,
        -0.011819206254494029,
        -0.02363841250898807
      ],
      "fourier": {
        "amplitude": 0.25867947231608057,
        "period": 7.800000000000001,
        "phase": -0.20745315930206712
      }
    }
  },
  "position_4": {
    "layer_2": {
      "baseline": 0.69285714285,
      "weights": [
        5.607473072335247e-18,
        0.28571428600000026,
        -0.2857142860000003,
        -1.3877787807814457e-17,
        2.220446049250313e-16
      ],
      "fourier": {
        "amplitude": 0.0,
        "period": 8.0,
        "phase": 0.0
      }
    },
    "layer_3": {
      "baseline": 0.6928571428357142,
      "weights": [
        -1.1300492610531985,
        -0.36502463052658585,
        -0.7650246305265853,
        3.2888888887999728,
        -0.3766830870177428
      ],
      "fourier": {
        "amplitude": 0.01173948979204996,
        "period": 6.222222222222223,
        "phase": 1.7406245546794652
      }
    },
    "layer_4": {
      "baseline": 0.692857142852381,
      "weights": [
        -0.9426712053407519,
        -0.32067255621757973,
        -0.5041647484555838,
        2.8521598052273336,
        -0.41896498015144823
      ],
      "fourier": {
        "amplitude": 0.021431511303149516,
        "period": 5.090909090909091,
        "phase": -1.5140861627640405
      }
    },
    "layer_5": {
      "baseline": 0.6928571428571428,
      "weights": [
        -0.26714932943452047,
        0.010054628018804967,
        -0.2772039574533343,
        0.8455606090589496,
        -0.1484162941302839
      ],
      "fourier": {
        "amplitude": 0.05586484720227506,
        "period": 5.0,
        "phase": 2.054747589734648
      }
    },
    "layer_6": {
      "baseline": 0.6416666666624999,
      "weights": [
        -0.7467155333979257,
        -0.23037180030940063,
        -0.4230042914137845,
        2.54589601199,
        -0.4978103555986151
      ],
      "fourier": {
        "amplitude": 0.05773276239228937,
        "period": 34.285714285714285,
        "phase": -2.225208984809282
      }
    },
    "layer_7": {
      "baseline": 0.7384615384615385,
      "weights": [
        -0.09377109433903862,
        0.06892279284161347,
        -0.16269388718065186,
        0.3543984780733878,
        -0.0729330733748089
      ],
      "fourier": {
        "amplitude": 0.07967374953982292,
        "period": 2.9885057471264367,
        "phase": -2.5774643316216714
      }
    },
    "layer_8": {
      "baseline": 0.42857142857142855,
      "weights": [
        -0.490591042478941,
        0.11395632835919262,
        -0.5432234905282592,
        2.064683053040102,
        -0.43608092664795606
      ],
      "fourier": {
        "amplitude": 0.1717847952085015,
        "period": 2.2222222222222223,
        "phase": 1.018054372554234
      }
    },
    "layer_9": {
      "baseline": 0.8181818181818182,
      "weights": [
        -0.004265529192215374,
        0.12689949346840843,
        -0.13116502266062394,
        -0.002132764596107735,
        -0.00426552919221547
      ],
      "fourier": {
        "amplitude": 0.23373517006483144,
        "period": 5.5,
        "phase": -1.5313053181834004
      }
    }
  },
  "position_5": {
    "layer_2": {
      "baseline": 0.535714285725,
      "weights": [
        0.27260855990328003,
        0.23329138241311886,
        -0.3571848078535478,
        -0.02477390465093747,
        -0.011010624289305437
      ],
      "fourier": {
        "amplitude": 0.0,
        "period": 8.0,
        "phase": 0.0
      }
    },
    "layer_3": {
      "baseline": 0.5357142856928572,
      "weights": [
        0.03765402127617432,
        -0.43964032516914836,
        -0.903059128593764,
        1.6779487178092276,
        -0.3555429195850286
      ],
      "fourier": {
        "amplitude": 0.01594628011193564,
        "period": 2.3333333333333335,
        "phase": -2.3767762650270234
      }
    },
    "layer_4": {
      "baseline": 0.5357142857095238,
      "weights": [
        -0.03263796581125156,
        -0.634748164002072,
        -0.9382135883168075,
        2.274784763006651,
        -0.6246404913665936
      ],
      "fourier": {
        "amplitude": 0.026170021430569245,
        "period": 5.419354838709678,
        "phase": 1.682787807223517
      }
    },
    "layer_5": {
      "baseline": 0.5357142857164285,
      "weights": [
        0.06177635839140621,
        -0.33191225474919483,
        -0.6606323365325331,
        1.4732154110679518,
        -0.4342668896372759
      ],
      "fourier": {
        "amplitude": 0.04377268029609081,
        "period": 23.333333333333332,
        "phase": 2.4512932540128918
      }
    },
    "layer_6": {
      "baseline": 0.4999999999955769,
      "weights": [
        0.040904837842833226,
        -0.29019645642412756,
        -0.5512898622672078,
        1.5487863462458327,
        -0.4925985832477792
      ],
      "fourier": {
        "amplitude": 0.08400054290410444,
        "period": 86.66666666666666,
        "phase": -0.9456103545302948
      }
    },
    "layer_7": {
      "baseline": 0.592,
      "weights": [
        0.10806527825126526,
        -0.20589847754710244,
        -0.4822949630027525,
        1.2719060557070394,
        -0.41139909750303927
      ],
      "fourier": {
        "amplitude": 0.1009545285020733,
        "period": 12.195121951219512,
        "phase": -2.742495338128135
      }
    },
    "layer_8": {
      "baseline": 0.3473684210526316,
      "weights": [
        -0.03852591911057841,
        -0.44231044080662796,
        -0.5827036156324058,
        2.5829633171664903,
        -0.8174977076279877
      ],
      "fourier": {
        "amplitude": 0.12135369052170938,
        "period": 23.75,
        "phase": -2.90511010390985
      }
    },
    "layer_9": {
      "baseline": 0.7692307692307693,
      "weights": [
        0.10215508031346923,
        -0.07030454129957317,
        0.015217755584970974,
        -0.01181920625449397,
        -0.023638412508987926
      ],
      "fourier": {
        "amplitude": 0.21723948712840163,
        "period": 13.0,
        "phase": 2.815646523225557
      }
    }
  },
  "position_6": {
    "layer_2": {
      "baseline": 0.60714285715,
      "weights": [
        0.23658939917104727,
        0.2606433108175237,
        -0.4822138321158096,
        -0.0721880762246772,
        -0.032083589433189785
      ],
      "fourier": {
        "amplitude": 0.0,
        "period": 8.0,
        "phase": 0.0
      }
    },
    "layer_3": {
      "baseline": 0.6071428571214286,
      "weights": [
        -0.04498338059762657,
        -0.7132668557238432,
        -1.1059569142168213,
        2.191812865389478,
        -0.48812523069068253
      ],
      "fourier": {
        "amplitude": 0.027293709531523734,
        "period": 3.5,
        "phase": -2.8203601983969984
      }
    },
    "layer_4": {
      "baseline": 0.6071428571380951,
      "weights": [
        -0.10036882007117941,
        -0.7436511298183909,
        -1.0863406936560716,
        2.5215179047859784,
        -0.7328727026142199
      ],
      "fourier": {
        "amplitude": 0.02734072665958163,
        "period": 168.0,
        "phase": 1.7313725312512773
      }
    },
    "layer_5": {
      "baseline": 0.6071428571442858,
      "weights": [
        0.05758876276301797,
        -0.15835894636367398,
        -0.662328860114722,
        1.0846450192818906,
        -0.35835138479450407
      ],
      "fourier": {
        "amplitude": 0.05679139630588255,
        "period": 83.99999999999999,
        "phase": -1.6228392277487405
      }
    },
    "layer_6": {
      "baseline": 0.5599999999974,
      "weights": [
        -0.015600247877423663,
        -0.4320334245110037,
        -0.7112756417209793,
        1.9995768041083568,
        -0.6798276315267019
      ],
      "fourier": {
        "amplitude": 0.07056293448356214,
        "period": 250.0,
        "phase": 0.618832527360852
      }
    },
    "layer_7": {
      "baseline": 0.6588235294117647,
      "weights": [
        0.09066795179031285,
        0.05299252295546918,
        -0.5037750074218038,
        0.6985395209690687,
        -0.26638297561167174
      ],
      "fourier": {
        "amplitude": 0.09925973021966944,
        "period": 3.017751479289941,
        "phase": -2.4353738533895433
      }
    },
    "layer_8": {
      "baseline": 0.3696969696969697,
      "weights": [
        0.029110316239765625,
        -0.38322718966031394,
        -0.5911566701350991,
        2.296650890754322,
        -0.7641333576181484
      ],
      "fourier": {
        "amplitude": 0.13750640940039743,
        "period": 6.6,
        "phase": 0.9064058003331451
      }
    },
    "layer_9": {
      "baseline": 0.7857142857142857,
      "weights": [
        0.09560227613057797,
        0.1939646600778671,
        -0.26825756214435426,
        -0.020156933213536884,
        -0.04031386642707377
      ],
      "fourier": {
        "amplitude": 0.2369576689056975,
        "period": 2.8000000000000003,
        "phase": -0.47109264344598617
      }
    }
  },
  "position_7": {
    "layer_2": {
      "baseline": 0.535714285725,
      "weights": [
        0.27260855990328003,
        0.23329138241311886,
        -0.3571848078535478,
        -0.02477390465093747,
        -0.011010624289305437
      ],
      "fourier": {
        "amplitude": 0.0,
        "period": 8.0,
        "phase": 0.0
      }
    },
    "layer_3": {
      "baseline": 0.5357142856928572,
      "weights": [
        0.03765402127617432,
        -0.43964032516914836,
        -0.903059128593764,
        1.6779487178092276,
        -0.3555429195850286
      ],
      "fourier": {
        "amplitude": 0.01594628011193564,
        "period": 2.3333333333333335,
        "phase": -2.3767762650270234
      }
    },
    "layer_4": {
      "baseline": 0.5357142857095237,
      "weights": [
        -0.032637965811252306,
        -0.6347481640020711,
        -0.9382135883168049,
        2.2747847630066476,
        -0.6246404913665928
      ],
      "fourier": {
        "amplitude": 0.021524548910588668,
        "period": 33.6,
        "phase": 0.8971063651497201
      }
    },
    "layer_5": {
      "baseline": 0.5357142857164285,
      "weights": [
        0.06177635839139929,
        -0.3319122547491895,
        -0.660632336532535,
        1.4732154110679558,
        -0.4342668896372731
      ],
      "fourier": {
        "amplitude": 0.064126479651306,
        "period": 83.99999999999999,
        "phase": 2.109301596856871
      }
    },
    "layer_6": {
      "baseline": 0.4999999999955769,
      "weights": [
        0.04090483784282825,
        -0.2901964564241226,
        -0.5512898622672107,
        1.548786346245833,
        -0.49259858324777495
      ],
      "fourier": {
        "amplitude": 0.08304677256237938,
        "period": 2.0077220077220077,
        "phase": -1.3342505072591233
      }
    },
    "layer_7": {
      "baseline": 0.592,
      "weights": [
        0.1080652782512665,
        -0.205898477547105,
        -0.4822949630027491,
        1.2719060557070407,
        -0.41139909750304227
      ],
      "fourier": {
        "amplitude": 0.09223927870758505,
        "period": 19.23076923076923,
        "phase": 1.0654537712934697
      }
    },
    "layer_8": {
      "baseline": 0.3473684210526316,
      "weights": [
        -0.03852591911057363,
        -0.4423104408066139,
        -0.5827036156323948,
        2.5829633171664517,
        -0.8174977076279824
      ],
      "fourier": {
        "amplitude": 0.14676150943092306,
        "period": 2.087912087912088,
        "phase": -0.22866465542516304
      }
    },
    "layer_9": {
      "baseline": 0.7692307692307693,
      "weights": [
        0.10215508031346947,
        -0.07030454129957361,
        0.015217755584971161,
        -0.011819206254494046,
        -0.02363841250898808
      ],
      "fourier": {
        "amplitude": 0.2536295594299708,
        "period": 6.5,
        "phase": 0.5777138747135446
      }
    }
  },
  "position_8": {
    "layer_2": {
      "baseline": 0.60714285715,
      "weights": [
        0.23658939917104727,
        0.2606433108175237,
        -0.4822138321158096,
        -0.0721880762246772,
        -0.032083589433189785
      ],
      "fourier": {
        "amplitude": 0.0,
        "period": 8.0,
        "phase": 0.0
      }
    },
    "layer_3": {
      "baseline": 0.6071428571214286,
      "weights": [
        -0.04498338059762657,
        -0.7132668557238432,
        -1.1059569142168213,
        2.191812865389478,
        -0.48812523069068253
      ],
      "fourier": {
        "amplitude": 0.02827908369581323,
        "period": 3.5,
        "phase": -2.728253729085342
      }
    },
    "layer_4": {
      "baseline": 0.6071428571380952,
      "weights": [
        -0.10036882007117937,
        -0.7436511298183918,
        -1.086340693656075,
        2.5215179047859815,
        -0.7328727026142203
      ],
      "fourier": {
        "amplitude": 0.031117380487394493,
        "period": 168.0,
        "phase": 1.8131863648573256
      }
    },
    "layer_5": {
      "baseline": 0.6071428571442856,
      "weights": [
        0.0575887627630175,
        -0.15835894636367143,
        -0.662328860114721,
        1.0846450192818882,
        -0.3583513847945052
      ],
      "fourier": {
        "amplitude": 0.05611845683560324,
        "period": 83.99999999999999,
        "phase": 1.5822734586802893
      }
    },
    "layer_6": {
      "baseline": 0.5599999999974,
      "weights": [
        -0.015600247877425727,
        -0.43203342451099325,
        -0.7112756417209765,
        1.9995768041083524,
        -0.679827631526707
      ],
      "fourier": {
        "amplitude": 0.055887899431458464,
        "period": 500.0,
        "phase": 1.7083423374675448
      }
    },
    "layer_7": {
      "baseline": 0.6588235294117647,
      "weights": [
        0.09066795179031212,
        0.05299252295546744,
        -0.5037750074218001,
        0.6985395209690634,
        -0.2663829756116679
      ],
      "fourier": {
        "amplitude": 0.09707198648631238,
        "period": 2.9824561403508776,
        "phase": 2.0238849270974666
      }
    },
    "layer_8": {
      "baseline": 0.3696969696969697,
      "weights": [
        0.02911031623976753,
        -0.38322718966031444,
        -0.5911566701350984,
        2.2966508907543206,
        -0.7641333576181497
      ],
      "fourier": {
        "amplitude": 0.1471454020513866,
        "period": 6.875,
        "phase": -2.8398926449696678
      }
    },
    "layer_9": {
      "baseline": 0.7857142857142857,
      "weights": [
        0.09560227613057827,
        0.1939646600778672,
        -0.26825756214435437,
        -0.020156933213536968,
        -0.04031386642707396
      ],
      "fourier": {
        "amplitude": 0.2068816586631004,
        "period": 7.0,
        "phase": 1.4233780072941442
      }
    }
  }
}